<?xml version="1.0"?>
<opencv_storage>
<cascade>
  <stageType>BOOST</stageType>
  <featureType>HAAR</featureType>
  <height>24</height>
  <width>36</width>
  <stageParams>
    <boostType>GAB</boostType>
    <minHitRate>9.9500000476837158e-01</minHitRate>
    <maxFalseAlarm>5.0000000000000000e-01</maxFalseAlarm>
    <weightTrimRate>9.4999998807907104e-01</weightTrimRate>
    <maxDepth>1</maxDepth>
    <maxWeakCount>100</maxWeakCount></stageParams>
  <featureParams>
    <maxCatCount>0</maxCatCount>
    <featSize>1</featSize>
    <mode>BASIC</mode></featureParams>
  <stageNum>15</stageNum>
  <stages>
    <!-- stage 0 -->
    <_>
      <maxWeakCount>3</maxWeakCount>
      <stageThreshold>-7.8619337081909180e-01</stageThreshold>
      <weakClassifiers>
        <_>
          <internalNodes>
            0 -1 48 2.0942566916346550e-03</internalNodes>
          <leafValues>
            -8.2062780857086182e-01 4.6153846383094788e-01</leafValues></_>
        <_>
          <internalNodes>
            0 -1 45 -5.1680195610970259e-04</internalNodes>
          <leafValues>
            5.7277375459671021e-01 -6.0818916559219360e-01</leafValues></_>
        <_>
          <internalNodes>
            0 -1 59 4.5077707618474960e-03</internalNodes>
          <leafValues>
            -5.3833931684494019e-01 7.5908279418945313e-01</leafValues></_></weakClassifiers></_>
    <!-- stage 1 -->
    <_>
      <maxWeakCount>6</maxWeakCount>
      <stageThreshold>-8.9215189218521118e-01</stageThreshold>
      <weakClassifiers>
        <_>
          <internalNodes>
            0 -1 23 8.4852293133735657e-02</internalNodes>
          <leafValues>
            -6.8750000000000000e-01 6.4444446563720703e-01</leafValues></_>
        <_>
          <internalNodes>
            0 -1 69 -9.6697290427982807e-04</internalNodes>
          <leafValues>
            6.8475085496902466e-01 -4.5401626825332642e-01</leafValues></_>
        <_>
          <internalNodes>
            0 -1 47 -1.8696226106840186e-05</internalNodes>
          <leafValues>
            5.6643605232238770e-01 -4.2743724584579468e-01</leafValues></_>
        <_>
          <internalNodes>
            0 -1 54 -6.8550281866919249e-05</internalNodes>
          <leafValues>
            5.6559002399444580e-01 -4.7651246190071106e-01</leafValues></_>
        <_>
          <internalNodes>
            0 -1 21 -7.3992239776998758e-04</internalNodes>
          <leafValues>
            6.6390234231948853e-01 -4.9009838700294495e-01</leafValues></_>
        <_>
          <internalNodes>
            0 -1 29 1.7765141092240810e-03</internalNodes>
          <leafValues>
            -3.8739687204360962e-01 6.4953911304473877e-01</leafValues></_></weakClassifiers></_>
    <!-- stage 2 -->
    <_>
      <maxWeakCount>5</maxWeakCount>
      <stageThreshold>-1.1946947574615479e+00</stageThreshold>
      <weakClassifiers>
        <_>
          <internalNodes>
            0 -1 65 -4.7168666496872902e-03</internalNodes>
          <leafValues>
            4.3396225571632385e-01 -6.8548387289047241e-01</leafValues></_>
        <_>
          <internalNodes>
            0 -1 74 1.6813564579933882e-03</internalNodes>
          <leafValues>
            -5.6996363401412964e-01 4.0130865573883057e-01</leafValues></_>
        <_>
          <internalNodes>
            0 -1 31 1.2027425691485405e-03</internalNodes>
          <leafValues>
            3.2494708895683289e-01 -7.2804868221282959e-01</leafValues></_>
        <_>
          <internalNodes>
            0 -1 22 1.0478430194780231e-03</internalNodes>
          <leafValues>
            3.3693268895149231e-01 -6.4351862668991089e-01</leafValues></_>
        <_>
          <internalNodes>
            0 -1 24 2.8292429633438587e-03</internalNodes>
          <leafValues>
            -5.2984780073165894e-01 4.6104767918586731e-01</leafValues></_></weakClassifiers></_>
    <!-- stage 3 -->
    <_>
      <maxWeakCount>6</maxWeakCount>
      <stageThreshold>-1.0119730234146118e+00</stageThreshold>
      <weakClassifiers>
        <_>
          <internalNodes>
            0 -1 58 -3.4506767988204956e-03</internalNodes>
          <leafValues>
            9.1666668653488159e-01 -6.1010831594467163e-01</leafValues></_>
        <_>
          <internalNodes>
            0 -1 63 -4.4591017067432404e-03</internalNodes>
          <leafValues>
            6.0313087701797485e-01 -4.4246807694435120e-01</leafValues></_>
        <_>
          <internalNodes>
            0 -1 11 -5.3439295152202249e-04</internalNodes>
          <leafValues>
            -8.2543325424194336e-01 3.0624374747276306e-01</leafValues></_>
        <_>
          <internalNodes>
            0 -1 32 -2.8182407841086388e-03</internalNodes>
          <leafValues>
            6.5437787771224976e-01 -3.7089562416076660e-01</leafValues></_>
        <_>
          <internalNodes>
            0 -1 13 -1.3589750044047832e-02</internalNodes>
          <leafValues>
            4.8358508944511414e-01 -5.2578032016754150e-01</leafValues></_>
        <_>
          <internalNodes>
            0 -1 37 -7.6934380922466516e-04</internalNodes>
          <leafValues>
            7.2172230482101440e-01 -3.7832981348037720e-01</leafValues></_></weakClassifiers></_>
    <!-- stage 4 -->
    <_>
      <maxWeakCount>5</maxWeakCount>
      <stageThreshold>-1.2492474317550659e+00</stageThreshold>
      <weakClassifiers>
        <_>
          <internalNodes>
            0 -1 6 -5.1528431475162506e-02</internalNodes>
          <leafValues>
            8.0487805604934692e-01 -6.9230771064758301e-01</leafValues></_>
        <_>
          <internalNodes>
            0 -1 30 -6.5073574660345912e-05</internalNodes>
          <leafValues>
            -8.6047142744064331e-01 2.1241635084152222e-01</leafValues></_>
        <_>
          <internalNodes>
            0 -1 1 4.3179927160963416e-05</internalNodes>
          <leafValues>
            2.6780596375465393e-01 -7.7517205476760864e-01</leafValues></_>
        <_>
          <internalNodes>
            0 -1 28 1.5945490449666977e-02</internalNodes>
          <leafValues>
            -3.6982327699661255e-01 7.5989955663681030e-01</leafValues></_>
        <_>
          <internalNodes>
            0 -1 76 -3.2889735302887857e-04</internalNodes>
          <leafValues>
            -7.5408363342285156e-01 3.8183167576789856e-01</leafValues></_></weakClassifiers></_>
    <!-- stage 5 -->
    <_>
      <maxWeakCount>4</maxWeakCount>
      <stageThreshold>-6.7472040653228760e-01</stageThreshold>
      <weakClassifiers>
        <_>
          <internalNodes>
            0 -1 7 -4.9027703702449799e-02</internalNodes>
          <leafValues>
            5.2727270126342773e-01 -7.1544712781906128e-01</leafValues></_>
        <_>
          <internalNodes>
            0 -1 49 2.4601694196462631e-02</internalNodes>
          <leafValues>
            -5.0683218240737915e-01 5.1915037631988525e-01</leafValues></_>
        <_>
          <internalNodes>
            0 -1 78 -7.8576624218840152e-05</internalNodes>
          <leafValues>
            -7.2084105014801025e-01 3.2071569561958313e-01</leafValues></_>
        <_>
          <internalNodes>
            0 -1 46 -1.5805545262992382e-04</internalNodes>
          <leafValues>
            -7.9913932085037231e-01 2.6616930961608887e-01</leafValues></_></weakClassifiers></_>
    <!-- stage 6 -->
    <_>
      <maxWeakCount>5</maxWeakCount>
      <stageThreshold>-5.1631885766983032e-01</stageThreshold>
      <weakClassifiers>
        <_>
          <internalNodes>
            0 -1 67 4.3786294758319855e-02</internalNodes>
          <leafValues>
            -6.8093383312225342e-01 6.3636362552642822e-01</leafValues></_>
        <_>
          <internalNodes>
            0 -1 10 -1.1697206355165690e-04</internalNodes>
          <leafValues>
            -9.7719871997833252e-01 1.1777544021606445e-01</leafValues></_>
        <_>
          <internalNodes>
            0 -1 4 -5.9994958341121674e-02</internalNodes>
          <leafValues>
            7.5749677419662476e-01 -3.2025688886642456e-01</leafValues></_>
        <_>
          <internalNodes>
            0 -1 77 -6.1539541929960251e-03</internalNodes>
          <leafValues>
            -9.3660014867782593e-01 2.5542372465133667e-01</leafValues></_>
        <_>
          <internalNodes>
            0 -1 71 -4.1543736006133258e-04</internalNodes>
          <leafValues>
            -8.3968967199325562e-01 2.2594293951988220e-01</leafValues></_></weakClassifiers></_>
    <!-- stage 7 -->
    <_>
      <maxWeakCount>7</maxWeakCount>
      <stageThreshold>-1.4660502672195435e+00</stageThreshold>
      <weakClassifiers>
        <_>
          <internalNodes>
            0 -1 44 -4.8038787208497524e-03</internalNodes>
          <leafValues>
            6.9230771064758301e-01 -6.0000002384185791e-01</leafValues></_>
        <_>
          <internalNodes>
            0 -1 3 7.7823869651183486e-04</internalNodes>
          <leafValues>
            -5.6438136100769043e-01 3.3608955144882202e-01</leafValues></_>
        <_>
          <internalNodes>
            0 -1 70 2.9384071240201592e-04</internalNodes>
          <leafValues>
            -3.2165068387985229e-01 5.2380686998367310e-01</leafValues></_>
        <_>
          <internalNodes>
            0 -1 27 2.7910336939385161e-05</internalNodes>
          <leafValues>
            3.0145063996315002e-01 -6.9887435436248779e-01</leafValues></_>
        <_>
          <internalNodes>
            0 -1 43 -4.0412947535514832e-02</internalNodes>
          <leafValues>
            7.1647042036056519e-01 -2.5568971037864685e-01</leafValues></_>
        <_>
          <internalNodes>
            0 -1 66 3.0392991902772337e-05</internalNodes>
          <leafValues>
            3.0228829383850098e-01 -6.8806993961334229e-01</leafValues></_>
        <_>
          <internalNodes>
            0 -1 50 5.3812388796359301e-04</internalNodes>
          <leafValues>
            -3.0986940860748291e-01 6.9556891918182373e-01</leafValues></_></weakClassifiers></_>
    <!-- stage 8 -->
    <_>
      <maxWeakCount>4</maxWeakCount>
      <stageThreshold>-9.4370687007904053e-01</stageThreshold>
      <weakClassifiers>
        <_>
          <internalNodes>
            0 -1 75 -5.4326029494404793e-03</internalNodes>
          <leafValues>
            4.5098039507865906e-01 -6.8000000715255737e-01</leafValues></_>
        <_>
          <internalNodes>
            0 -1 62 -1.4777095057070255e-03</internalNodes>
          <leafValues>
            7.0792734622955322e-01 -4.1813984513282776e-01</leafValues></_>
        <_>
          <internalNodes>
            0 -1 26 7.8687933273613453e-04</internalNodes>
          <leafValues>
            -4.0259510278701782e-01 7.3060548305511475e-01</leafValues></_>
        <_>
          <internalNodes>
            0 -1 35 2.7890510391443968e-03</internalNodes>
          <leafValues>
            -4.7572329640388489e-01 5.5702811479568481e-01</leafValues></_></weakClassifiers></_>
    <!-- stage 9 -->
    <_>
      <maxWeakCount>6</maxWeakCount>
      <stageThreshold>-9.9133008718490601e-01</stageThreshold>
      <weakClassifiers>
        <_>
          <internalNodes>
            0 -1 55 2.3626191541552544e-03</internalNodes>
          <leafValues>
            -6.6393440961837769e-01 2.6315790414810181e-01</leafValues></_>
        <_>
          <internalNodes>
            0 -1 61 -1.4414556324481964e-02</internalNodes>
          <leafValues>
            3.4289070963859558e-01 -5.1841205358505249e-01</leafValues></_>
        <_>
          <internalNodes>
            0 -1 14 3.4095879527740180e-04</internalNodes>
          <leafValues>
            -3.8470149040222168e-01 4.4787603616714478e-01</leafValues></_>
        <_>
          <internalNodes>
            0 -1 18 -1.1173001257702708e-04</internalNodes>
          <leafValues>
            -6.0014361143112183e-01 3.3494794368743896e-01</leafValues></_>
        <_>
          <internalNodes>
            0 -1 36 1.0841051116585732e-03</internalNodes>
          <leafValues>
            -3.7573495507240295e-01 6.3120013475418091e-01</leafValues></_>
        <_>
          <internalNodes>
            0 -1 40 4.1580032557249069e-03</internalNodes>
          <leafValues>
            -2.1607269346714020e-01 8.5002797842025757e-01</leafValues></_></weakClassifiers></_>
    <!-- stage 10 -->
    <_>
      <maxWeakCount>6</maxWeakCount>
      <stageThreshold>-1.4430392980575562e+00</stageThreshold>
      <weakClassifiers>
        <_>
          <internalNodes>
            0 -1 68 1.6262630000710487e-02</internalNodes>
          <leafValues>
            -7.1689498424530029e-01 1.2195122241973877e-01</leafValues></_>
        <_>
          <internalNodes>
            0 -1 51 3.7425442133098841e-04</internalNodes>
          <leafValues>
            1.6578333079814911e-01 -6.4219188690185547e-01</leafValues></_>
        <_>
          <internalNodes>
            0 -1 20 5.7186669437214732e-05</internalNodes>
          <leafValues>
            -4.0689894556999207e-01 3.7382060289382935e-01</leafValues></_>
        <_>
          <internalNodes>
            0 -1 15 1.2409241753630340e-04</internalNodes>
          <leafValues>
            2.4402506649494171e-01 -8.6346000432968140e-01</leafValues></_>
        <_>
          <internalNodes>
            0 -1 38 -8.0049957614392042e-04</internalNodes>
          <leafValues>
            4.8084571957588196e-01 -3.6629208922386169e-01</leafValues></_>
        <_>
          <internalNodes>
            0 -1 19 2.5571957230567932e-02</internalNodes>
          <leafValues>
            -4.0192431211471558e-01 4.6095404028892517e-01</leafValues></_></weakClassifiers></_>
    <!-- stage 11 -->
    <_>
      <maxWeakCount>4</maxWeakCount>
      <stageThreshold>-8.1891393661499023e-01</stageThreshold>
      <weakClassifiers>
        <_>
          <internalNodes>
            0 -1 73 3.4996261820197105e-04</internalNodes>
          <leafValues>
            -7.1287131309509277e-01 -3.0303031206130981e-02</leafValues></_>
        <_>
          <internalNodes>
            0 -1 39 6.5201479010283947e-03</internalNodes>
          <leafValues>
            -3.5533156991004944e-01 4.6098393201828003e-01</leafValues></_>
        <_>
          <internalNodes>
            0 -1 12 3.4258613595739007e-05</internalNodes>
          <leafValues>
            2.2302481532096863e-01 -7.1817547082901001e-01</leafValues></_>
        <_>
          <internalNodes>
            0 -1 33 -9.1797474306076765e-04</internalNodes>
          <leafValues>
            -5.3141939640045166e-01 3.5684898495674133e-01</leafValues></_></weakClassifiers></_>
    <!-- stage 12 -->
    <_>
      <maxWeakCount>7</maxWeakCount>
      <stageThreshold>-1.0570127964019775e+00</stageThreshold>
      <weakClassifiers>
        <_>
          <internalNodes>
            0 -1 5 -3.0517933890223503e-02</internalNodes>
          <leafValues>
            2.2033898532390594e-01 -6.6115701198577881e-01</leafValues></_>
        <_>
          <internalNodes>
            0 -1 9 1.2842583470046520e-02</internalNodes>
          <leafValues>
            -4.5211452245712280e-01 4.1196036338806152e-01</leafValues></_>
        <_>
          <internalNodes>
            0 -1 34 -6.5319630084559321e-04</internalNodes>
          <leafValues>
            6.2740504741668701e-01 -2.7204069495201111e-01</leafValues></_>
        <_>
          <internalNodes>
            0 -1 42 -5.0570597522892058e-05</internalNodes>
          <leafValues>
            -5.5609935522079468e-01 3.0350250005722046e-01</leafValues></_>
        <_>
          <internalNodes>
            0 -1 0 -1.8290071748197079e-03</internalNodes>
          <leafValues>
            -6.8293046951293945e-01 2.6482373476028442e-01</leafValues></_>
        <_>
          <internalNodes>
            0 -1 64 -1.1488504242151976e-03</internalNodes>
          <leafValues>
            5.1278221607208252e-01 -3.7623745203018188e-01</leafValues></_>
        <_>
          <internalNodes>
            0 -1 2 -7.0411711931228638e-04</internalNodes>
          <leafValues>
            -6.6912961006164551e-01 2.4595707654953003e-01</leafValues></_></weakClassifiers></_>
    <!-- stage 13 -->
    <_>
      <maxWeakCount>5</maxWeakCount>
      <stageThreshold>-1.0858160257339478e+00</stageThreshold>
      <weakClassifiers>
        <_>
          <internalNodes>
            0 -1 25 1.8587984144687653e-02</internalNodes>
          <leafValues>
            -5.8122742176055908e-01 5.8333331346511841e-01</leafValues></_>
        <_>
          <internalNodes>
            0 -1 72 -1.6178170335479081e-04</internalNodes>
          <leafValues>
            -8.6705523729324341e-01 1.0444933921098709e-01</leafValues></_>
        <_>
          <internalNodes>
            0 -1 53 -1.6216476797126234e-04</internalNodes>
          <leafValues>
            4.0095198154449463e-01 -3.9908492565155029e-01</leafValues></_>
        <_>
          <internalNodes>
            0 -1 60 -2.4335826310561970e-05</internalNodes>
          <leafValues>
            -6.7125743627548218e-01 2.6526674628257751e-01</leafValues></_>
        <_>
          <internalNodes>
            0 -1 17 4.2625440983101726e-05</internalNodes>
          <leafValues>
            -4.7521969676017761e-01 3.4533238410949707e-01</leafValues></_></weakClassifiers></_>
    <!-- stage 14 -->
    <_>
      <maxWeakCount>6</maxWeakCount>
      <stageThreshold>-1.1365404129028320e+00</stageThreshold>
      <weakClassifiers>
        <_>
          <internalNodes>
            0 -1 57 -2.6284744963049889e-03</internalNodes>
          <leafValues>
            1.4285714924335480e-01 -6.7965370416641235e-01</leafValues></_>
        <_>
          <internalNodes>
            0 -1 41 -2.1368885040283203e-01</internalNodes>
          <leafValues>
            6.1213308572769165e-01 -3.3751350641250610e-01</leafValues></_>
        <_>
          <internalNodes>
            0 -1 8 2.2574128524865955e-04</internalNodes>
          <leafValues>
            2.4251203238964081e-01 -7.1217954158782959e-01</leafValues></_>
        <_>
          <internalNodes>
            0 -1 16 -2.9583079740405083e-03</internalNodes>
          <leafValues>
            5.6531858444213867e-01 -3.0471041798591614e-01</leafValues></_>
        <_>
          <internalNodes>
            0 -1 56 2.0214320102240890e-05</internalNodes>
          <leafValues>
            -3.8576239347457886e-01 5.1746904850006104e-01</leafValues></_>
        <_>
          <internalNodes>
            0 -1 52 7.4593839235603809e-04</internalNodes>
          <leafValues>
            -4.9392324686050415e-01 3.6868676543235779e-01</leafValues></_></weakClassifiers></_></stages>
  <features>
    <_>
      <rects>
        <_>
          0 0 14 1 -1.</_>
        <_>
          7 0 7 1 2.</_></rects>
      <tilted>0</tilted></_>
    <_>
      <rects>
        <_>
          0 3 1 2 -1.</_>
        <_>
          0 4 1 1 2.</_></rects>
      <tilted>0</tilted></_>
    <_>
      <rects>
        <_>
          0 6 1 9 -1.</_>
        <_>
          0 9 1 3 3.</_></rects>
      <tilted>0</tilted></_>
    <_>
      <rects>
        <_>
          0 7 4 14 -1.</_>
        <_>
          0 7 2 7 2.</_>
        <_>
          2 14 2 7 2.</_></rects>
      <tilted>0</tilted></_>
    <_>
      <rects>
        <_>
          0 7 24 12 -1.</_>
        <_>
          0 7 12 6 2.</_>
        <_>
          12 13 12 6 2.</_></rects>
      <tilted>0</tilted></_>
    <_>
      <rects>
        <_>
          0 10 8 7 -1.</_>
        <_>
          4 10 4 7 2.</_></rects>
      <tilted>0</tilted></_>
    <_>
      <rects>
        <_>
          0 10 10 9 -1.</_>
        <_>
          5 10 5 9 2.</_></rects>
      <tilted>0</tilted></_>
    <_>
      <rects>
        <_>
          0 12 12 8 -1.</_>
        <_>
          6 12 6 8 2.</_></rects>
      <tilted>0</tilted></_>
    <_>
      <rects>
        <_>
          0 13 2 7 -1.</_>
        <_>
          1 13 1 7 2.</_></rects>
      <tilted>0</tilted></_>
    <_>
      <rects>
        <_>
          0 14 12 6 -1.</_>
        <_>
          4 14 4 6 3.</_></rects>
      <tilted>0</tilted></_>
    <_>
      <rects>
        <_>
          0 22 2 2 -1.</_>
        <_>
          0 22 1 1 2.</_>
        <_>
          1 23 1 1 2.</_></rects>
      <tilted>0</tilted></_>
    <_>
      <rects>
        <_>
          0 22 9 2 -1.</_>
        <_>
          3 22 3 2 3.</_></rects>
      <tilted>0</tilted></_>
    <_>
      <rects>
        <_>
          2 1 2 2 -1.</_>
        <_>
          2 1 1 1 2.</_>
        <_>
          3 2 1 1 2.</_></rects>
      <tilted>0</tilted></_>
    <_>
      <rects>
        <_>
          2 2 34 8 -1.</_>
        <_>
          2 6 34 4 2.</_></rects>
      <tilted>0</tilted></_>
    <_>
      <rects>
        <_>
          2 10 2 10 -1.</_>
        <_>
          2 10 1 5 2.</_>
        <_>
          3 15 1 5 2.</_></rects>
      <tilted>0</tilted></_>
    <_>
      <rects>
        <_>
          3 2 1 2 -1.</_>
        <_>
          3 3 1 1 2.</_></rects>
      <tilted>0</tilted></_>
    <_>
      <rects>
        <_>
          3 3 10 2 -1.</_>
        <_>
          8 3 5 2 2.</_></rects>
      <tilted>0</tilted></_>
    <_>
      <rects>
        <_>
          3 15 3 1 -1.</_>
        <_>
          4 15 1 1 3.</_></rects>
      <tilted>0</tilted></_>
    <_>
      <rects>
        <_>
          3 23 15 1 -1.</_>
        <_>
          8 23 5 1 3.</_></rects>
      <tilted>0</tilted></_>
    <_>
      <rects>
        <_>
          4 6 8 18 -1.</_>
        <_>
          4 15 8 9 2.</_></rects>
      <tilted>0</tilted></_>
    <_>
      <rects>
        <_>
          4 13 3 1 -1.</_>
        <_>
          5 13 1 1 3.</_></rects>
      <tilted>0</tilted></_>
    <_>
      <rects>
        <_>
          4 14 2 7 -1.</_>
        <_>
          5 14 1 7 2.</_></rects>
      <tilted>0</tilted></_>
    <_>
      <rects>
        <_>
          5 0 24 1 -1.</_>
        <_>
          13 0 8 1 3.</_></rects>
      <tilted>0</tilted></_>
    <_>
      <rects>
        <_>
          5 16 21 8 -1.</_>
        <_>
          5 20 21 4 2.</_></rects>
      <tilted>0</tilted></_>
    <_>
      <rects>
        <_>
          5 19 10 4 -1.</_>
        <_>
          5 19 5 2 2.</_>
        <_>
          10 21 5 2 2.</_></rects>
      <tilted>0</tilted></_>
    <_>
      <rects>
        <_>
          6 4 6 11 -1.</_>
        <_>
          8 4 2 11 3.</_></rects>
      <tilted>0</tilted></_>
    <_>
      <rects>
        <_>
          6 14 6 2 -1.</_>
        <_>
          6 14 3 1 2.</_>
        <_>
          9 15 3 1 2.</_></rects>
      <tilted>0</tilted></_>
    <_>
      <rects>
        <_>
          7 0 6 1 -1.</_>
        <_>
          9 0 2 1 3.</_></rects>
      <tilted>0</tilted></_>
    <_>
      <rects>
        <_>
          7 11 26 4 -1.</_>
        <_>
          7 11 13 2 2.</_>
        <_>
          20 13 13 2 2.</_></rects>
      <tilted>0</tilted></_>
    <_>
      <rects>
        <_>
          7 17 2 6 -1.</_>
        <_>
          7 19 2 2 3.</_></rects>
      <tilted>0</tilted></_>
    <_>
      <rects>
        <_>
          7 22 2 2 -1.</_>
        <_>
          7 22 1 1 2.</_>
        <_>
          8 23 1 1 2.</_></rects>
      <tilted>0</tilted></_>
    <_>
      <rects>
        <_>
          8 0 24 1 -1.</_>
        <_>
          20 0 12 1 2.</_></rects>
      <tilted>0</tilted></_>
    <_>
      <rects>
        <_>
          8 18 22 2 -1.</_>
        <_>
          8 19 22 1 2.</_></rects>
      <tilted>0</tilted></_>
    <_>
      <rects>
        <_>
          9 2 6 16 -1.</_>
        <_>
          12 2 3 16 2.</_></rects>
      <tilted>0</tilted></_>
    <_>
      <rects>
        <_>
          9 3 4 2 -1.</_>
        <_>
          9 3 2 1 2.</_>
        <_>
          11 4 2 1 2.</_></rects>
      <tilted>0</tilted></_>
    <_>
      <rects>
        <_>
          9 7 9 5 -1.</_>
        <_>
          12 7 3 5 3.</_></rects>
      <tilted>0</tilted></_>
    <_>
      <rects>
        <_>
          9 10 6 4 -1.</_>
        <_>
          9 10 3 2 2.</_>
        <_>
          12 12 3 2 2.</_></rects>
      <tilted>0</tilted></_>
    <_>
      <rects>
        <_>
          9 13 4 2 -1.</_>
        <_>
          9 13 2 1 2.</_>
        <_>
          11 14 2 1 2.</_></rects>
      <tilted>0</tilted></_>
    <_>
      <rects>
        <_>
          9 16 2 4 -1.</_>
        <_>
          9 18 2 2 2.</_></rects>
      <tilted>0</tilted></_>
    <_>
      <rects>
        <_>
          9 17 8 6 -1.</_>
        <_>
          9 17 4 3 2.</_>
        <_>
          13 20 4 3 2.</_></rects>
      <tilted>0</tilted></_>
    <_>
      <rects>
        <_>
          10 1 2 6 -1.</_>
        <_>
          10 3 2 2 3.</_></rects>
      <tilted>0</tilted></_>
    <_>
      <rects>
        <_>
          10 1 24 18 -1.</_>
        <_>
          10 10 24 9 2.</_></rects>
      <tilted>0</tilted></_>
    <_>
      <rects>
        <_>
          10 23 15 1 -1.</_>
        <_>
          15 23 5 1 3.</_></rects>
      <tilted>0</tilted></_>
    <_>
      <rects>
        <_>
          12 18 24 6 -1.</_>
        <_>
          12 18 12 3 2.</_>
        <_>
          24 21 12 3 2.</_></rects>
      <tilted>0</tilted></_>
    <_>
      <rects>
        <_>
          13 2 1 6 -1.</_>
        <_>
          13 4 1 2 3.</_></rects>
      <tilted>0</tilted></_>
    <_>
      <rects>
        <_>
          13 12 1 4 -1.</_>
        <_>
          13 14 1 2 2.</_></rects>
      <tilted>0</tilted></_>
    <_>
      <rects>
        <_>
          14 0 2 2 -1.</_>
        <_>
          14 1 2 1 2.</_></rects>
      <tilted>0</tilted></_>
    <_>
      <rects>
        <_>
          14 14 2 2 -1.</_>
        <_>
          14 14 1 1 2.</_>
        <_>
          15 15 1 1 2.</_></rects>
      <tilted>0</tilted></_>
    <_>
      <rects>
        <_>
          14 16 1 8 -1.</_>
        <_>
          14 20 1 4 2.</_></rects>
      <tilted>0</tilted></_>
    <_>
      <rects>
        <_>
          16 9 20 10 -1.</_>
        <_>
          16 9 10 5 2.</_>
        <_>
          26 14 10 5 2.</_></rects>
      <tilted>0</tilted></_>
    <_>
      <rects>
        <_>
          17 4 2 4 -1.</_>
        <_>
          17 4 1 2 2.</_>
        <_>
          18 6 1 2 2.</_></rects>
      <tilted>0</tilted></_>
    <_>
      <rects>
        <_>
          18 0 9 2 -1.</_>
        <_>
          21 0 3 2 3.</_></rects>
      <tilted>0</tilted></_>
    <_>
      <rects>
        <_>
          18 4 2 20 -1.</_>
        <_>
          18 4 1 10 2.</_>
        <_>
          19 14 1 10 2.</_></rects>
      <tilted>0</tilted></_>
    <_>
      <rects>
        <_>
          18 6 2 5 -1.</_>
        <_>
          19 6 1 5 2.</_></rects>
      <tilted>0</tilted></_>
    <_>
      <rects>
        <_>
          18 15 1 2 -1.</_>
        <_>
          18 16 1 1 2.</_></rects>
      <tilted>0</tilted></_>
    <_>
      <rects>
        <_>
          18 21 4 3 -1.</_>
        <_>
          18 22 4 1 3.</_></rects>
      <tilted>0</tilted></_>
    <_>
      <rects>
        <_>
          19 11 3 2 -1.</_>
        <_>
          20 11 1 2 3.</_></rects>
      <tilted>0</tilted></_>
    <_>
      <rects>
        <_>
          20 6 6 4 -1.</_>
        <_>
          20 6 3 2 2.</_>
        <_>
          23 8 3 2 2.</_></rects>
      <tilted>0</tilted></_>
    <_>
      <rects>
        <_>
          23 9 8 2 -1.</_>
        <_>
          23 9 4 1 2.</_>
        <_>
          27 10 4 1 2.</_></rects>
      <tilted>0</tilted></_>
    <_>
      <rects>
        <_>
          23 10 4 14 -1.</_>
        <_>
          23 10 2 7 2.</_>
        <_>
          25 17 2 7 2.</_></rects>
      <tilted>0</tilted></_>
    <_>
      <rects>
        <_>
          24 1 4 2 -1.</_>
        <_>
          24 1 2 1 2.</_>
        <_>
          26 2 2 1 2.</_></rects>
      <tilted>0</tilted></_>
    <_>
      <rects>
        <_>
          24 2 11 8 -1.</_>
        <_>
          24 6 11 4 2.</_></rects>
      <tilted>0</tilted></_>
    <_>
      <rects>
        <_>
          24 4 2 16 -1.</_>
        <_>
          24 4 1 8 2.</_>
        <_>
          25 12 1 8 2.</_></rects>
      <tilted>0</tilted></_>
    <_>
      <rects>
        <_>
          24 17 12 4 -1.</_>
        <_>
          24 17 6 2 2.</_>
        <_>
          30 19 6 2 2.</_></rects>
      <tilted>0</tilted></_>
    <_>
      <rects>
        <_>
          24 20 10 2 -1.</_>
        <_>
          24 20 5 1 2.</_>
        <_>
          29 21 5 1 2.</_></rects>
      <tilted>0</tilted></_>
    <_>
      <rects>
        <_>
          25 3 2 6 -1.</_>
        <_>
          25 6 2 3 2.</_></rects>
      <tilted>0</tilted></_>
    <_>
      <rects>
        <_>
          26 1 2 4 -1.</_>
        <_>
          27 1 1 4 2.</_></rects>
      <tilted>0</tilted></_>
    <_>
      <rects>
        <_>
          26 7 10 9 -1.</_>
        <_>
          31 7 5 9 2.</_></rects>
      <tilted>0</tilted></_>
    <_>
      <rects>
        <_>
          26 12 10 4 -1.</_>
        <_>
          31 12 5 4 2.</_></rects>
      <tilted>0</tilted></_>
    <_>
      <rects>
        <_>
          27 5 6 2 -1.</_>
        <_>
          27 5 3 1 2.</_>
        <_>
          30 6 3 1 2.</_></rects>
      <tilted>0</tilted></_>
    <_>
      <rects>
        <_>
          28 7 2 4 -1.</_>
        <_>
          29 7 1 4 2.</_></rects>
      <tilted>0</tilted></_>
    <_>
      <rects>
        <_>
          28 19 3 3 -1.</_>
        <_>
          29 19 1 3 3.</_></rects>
      <tilted>0</tilted></_>
    <_>
      <rects>
        <_>
          28 21 6 1 -1.</_>
        <_>
          30 21 2 1 3.</_></rects>
      <tilted>0</tilted></_>
    <_>
      <rects>
        <_>
          29 13 2 2 -1.</_>
        <_>
          30 13 1 2 2.</_></rects>
      <tilted>0</tilted></_>
    <_>
      <rects>
        <_>
          31 0 4 14 -1.</_>
        <_>
          31 0 2 7 2.</_>
        <_>
          33 7 2 7 2.</_></rects>
      <tilted>0</tilted></_>
    <_>
      <rects>
        <_>
          31 10 4 10 -1.</_>
        <_>
          31 10 2 5 2.</_>
        <_>
          33 15 2 5 2.</_></rects>
      <tilted>0</tilted></_>
    <_>
      <rects>
        <_>
          31 18 4 3 -1.</_>
        <_>
          31 19 4 1 3.</_></rects>
      <tilted>0</tilted></_>
    <_>
      <rects>
        <_>
          35 2 1 18 -1.</_>
        <_>
          35 11 1 9 2.</_></rects>
      <tilted>0</tilted></_>
    <_>
      <rects>
        <_>
          35 13 1 2 -1.</_>
        <_>
          35 14 1 1 2.</_></rects>
      <tilted>0</tilted></_></features></cascade>
</opencv_storage>
