<?xml version="1.0"?>
<opencv_storage>
<cascade>
  <stageType>BOOST</stageType>
  <featureType>HAAR</featureType>
  <height>24</height>
  <width>36</width>
  <stageParams>
    <boostType>GAB</boostType>
    <minHitRate>9.9500000476837158e-01</minHitRate>
    <maxFalseAlarm>5.0000000000000000e-01</maxFalseAlarm>
    <weightTrimRate>9.4999998807907104e-01</weightTrimRate>
    <maxDepth>1</maxDepth>
    <maxWeakCount>100</maxWeakCount></stageParams>
  <featureParams>
    <maxCatCount>0</maxCatCount>
    <featSize>1</featSize>
    <mode>BASIC</mode></featureParams>
  <stageNum>15</stageNum>
  <stages>
    <!-- stage 0 -->
    <_>
      <maxWeakCount>7</maxWeakCount>
      <stageThreshold>-1.3673212528228760e+00</stageThreshold>
      <weakClassifiers>
        <_>
          <internalNodes>
            0 -1 5 -4.2491517961025238e-02</internalNodes>
          <leafValues>
            6.6037738323211670e-01 -5.3903347253799438e-01</leafValues></_>
        <_>
          <internalNodes>
            0 -1 12 1.2156480550765991e-01</internalNodes>
          <leafValues>
            -2.0193119347095490e-01 9.8074424266815186e-01</leafValues></_>
        <_>
          <internalNodes>
            0 -1 41 1.9690221233759075e-04</internalNodes>
          <leafValues>
            3.8366141915321350e-01 -5.4475742578506470e-01</leafValues></_>
        <_>
          <internalNodes>
            0 -1 106 8.7357271695509553e-05</internalNodes>
          <leafValues>
            3.2619118690490723e-01 -6.1948204040527344e-01</leafValues></_>
        <_>
          <internalNodes>
            0 -1 67 -9.4330513093154877e-05</internalNodes>
          <leafValues>
            6.9797253608703613e-01 -3.1234189867973328e-01</leafValues></_>
        <_>
          <internalNodes>
            0 -1 8 3.0218583997339010e-03</internalNodes>
          <leafValues>
            2.9270440340042114e-01 -8.5024917125701904e-01</leafValues></_>
        <_>
          <internalNodes>
            0 -1 75 -1.7222040332853794e-04</internalNodes>
          <leafValues>
            5.4436779022216797e-01 -3.8815295696258545e-01</leafValues></_></weakClassifiers></_>
    <!-- stage 1 -->
    <_>
      <maxWeakCount>5</maxWeakCount>
      <stageThreshold>-4.4501426815986633e-01</stageThreshold>
      <weakClassifiers>
        <_>
          <internalNodes>
            0 -1 60 3.5095702856779099e-02</internalNodes>
          <leafValues>
            -4.5454546809196472e-01 6.3380283117294312e-01</leafValues></_>
        <_>
          <internalNodes>
            0 -1 48 1.1213161051273346e-02</internalNodes>
          <leafValues>
            -2.4483215808868408e-01 7.2238266468048096e-01</leafValues></_>
        <_>
          <internalNodes>
            0 -1 43 -2.9817949980497360e-02</internalNodes>
          <leafValues>
            7.9064613580703735e-01 -2.9310849308967590e-01</leafValues></_>
        <_>
          <internalNodes>
            0 -1 104 -7.0920498110353947e-03</internalNodes>
          <leafValues>
            -6.8212908506393433e-01 3.1901782751083374e-01</leafValues></_>
        <_>
          <internalNodes>
            0 -1 110 3.2093275804072618e-03</internalNodes>
          <leafValues>
            3.4037286043167114e-01 -7.3876076936721802e-01</leafValues></_></weakClassifiers></_>
    <!-- stage 2 -->
    <_>
      <maxWeakCount>6</maxWeakCount>
      <stageThreshold>-8.3190584182739258e-01</stageThreshold>
      <weakClassifiers>
        <_>
          <internalNodes>
            0 -1 51 -4.3230749666690826e-02</internalNodes>
          <leafValues>
            5.7055217027664185e-01 -5.0188678503036499e-01</leafValues></_>
        <_>
          <internalNodes>
            0 -1 18 8.7175667285919189e-03</internalNodes>
          <leafValues>
            2.0418691635131836e-01 -9.4810634851455688e-01</leafValues></_>
        <_>
          <internalNodes>
            0 -1 28 -7.0712445303797722e-03</internalNodes>
          <leafValues>
            -7.5439780950546265e-01 2.0146106183528900e-01</leafValues></_>
        <_>
          <internalNodes>
            0 -1 83 8.5986184421926737e-04</internalNodes>
          <leafValues>
            -3.3293321728706360e-01 6.6982328891754150e-01</leafValues></_>
        <_>
          <internalNodes>
            0 -1 76 -4.0132354479283094e-04</internalNodes>
          <leafValues>
            5.8474040031433105e-01 -3.5315260291099548e-01</leafValues></_>
        <_>
          <internalNodes>
            0 -1 6 -8.4606781601905823e-03</internalNodes>
          <leafValues>
            -9.0761989355087280e-01 2.6608121395111084e-01</leafValues></_></weakClassifiers></_>
    <!-- stage 3 -->
    <_>
      <maxWeakCount>7</maxWeakCount>
      <stageThreshold>-8.7864762544631958e-01</stageThreshold>
      <weakClassifiers>
        <_>
          <internalNodes>
            0 -1 19 3.4899730235338211e-03</internalNodes>
          <leafValues>
            1.9344262778759003e-01 -8.0487805604934692e-01</leafValues></_>
        <_>
          <internalNodes>
            0 -1 20 2.7055521495640278e-03</internalNodes>
          <leafValues>
            2.7543073892593384e-01 -6.4084523916244507e-01</leafValues></_>
        <_>
          <internalNodes>
            0 -1 25 -3.6570276133716106e-03</internalNodes>
          <leafValues>
            -7.8834718465805054e-01 3.2147678732872009e-01</leafValues></_>
        <_>
          <internalNodes>
            0 -1 95 2.9456631746143103e-03</internalNodes>
          <leafValues>
            -3.4401708841323853e-01 6.7363929748535156e-01</leafValues></_>
        <_>
          <internalNodes>
            0 -1 35 -4.4541648821905255e-04</internalNodes>
          <leafValues>
            5.8957010507583618e-01 -3.2877644896507263e-01</leafValues></_>
        <_>
          <internalNodes>
            0 -1 53 6.2293922528624535e-03</internalNodes>
          <leafValues>
            -2.0011734962463379e-01 9.3769156932830811e-01</leafValues></_>
        <_>
          <internalNodes>
            0 -1 54 -4.6720332466065884e-03</internalNodes>
          <leafValues>
            -8.2175087928771973e-01 2.9440134763717651e-01</leafValues></_></weakClassifiers></_>
    <!-- stage 4 -->
    <_>
      <maxWeakCount>6</maxWeakCount>
      <stageThreshold>-9.0293467044830322e-01</stageThreshold>
      <weakClassifiers>
        <_>
          <internalNodes>
            0 -1 85 -8.8076700922101736e-04</internalNodes>
          <leafValues>
            7.4757283926010132e-01 -3.6000001430511475e-01</leafValues></_>
        <_>
          <internalNodes>
            0 -1 47 8.4229977801442146e-03</internalNodes>
          <leafValues>
            3.0489259958267212e-01 -9.0041774511337280e-01</leafValues></_>
        <_>
          <internalNodes>
            0 -1 83 8.6052471306174994e-04</internalNodes>
          <leafValues>
            -3.3329537510871887e-01 7.4743300676345825e-01</leafValues></_>
        <_>
          <internalNodes>
            0 -1 82 2.4825107539072633e-04</internalNodes>
          <leafValues>
            -3.3545920252799988e-01 6.3626509904861450e-01</leafValues></_>
        <_>
          <internalNodes>
            0 -1 33 2.5521162897348404e-03</internalNodes>
          <leafValues>
            4.2619106173515320e-01 -6.1270034313201904e-01</leafValues></_>
        <_>
          <internalNodes>
            0 -1 56 4.7699213610030711e-05</internalNodes>
          <leafValues>
            -4.0872928500175476e-01 6.6721367835998535e-01</leafValues></_></weakClassifiers></_>
    <!-- stage 5 -->
    <_>
      <maxWeakCount>5</maxWeakCount>
      <stageThreshold>-1.0430663824081421e+00</stageThreshold>
      <weakClassifiers>
        <_>
          <internalNodes>
            0 -1 3 -5.4453630000352859e-02</internalNodes>
          <leafValues>
            7.8787881135940552e-01 -4.8648649454116821e-01</leafValues></_>
        <_>
          <internalNodes>
            0 -1 32 1.5907989814877510e-02</internalNodes>
          <leafValues>
            -2.8076434135437012e-01 8.3440911769866943e-01</leafValues></_>
        <_>
          <internalNodes>
            0 -1 36 -1.9626950379461050e-03</internalNodes>
          <leafValues>
            5.6879043579101563e-01 -4.3570390343666077e-01</leafValues></_>
        <_>
          <internalNodes>
            0 -1 86 2.1037645637989044e-05</internalNodes>
          <leafValues>
            -4.5751768350601196e-01 5.6556189060211182e-01</leafValues></_>
        <_>
          <internalNodes>
            0 -1 34 1.6885598597582430e-05</internalNodes>
          <leafValues>
            -3.8708826899528503e-01 7.0645672082901001e-01</leafValues></_></weakClassifiers></_>
    <!-- stage 6 -->
    <_>
      <maxWeakCount>8</maxWeakCount>
      <stageThreshold>-9.7761410474777222e-01</stageThreshold>
      <weakClassifiers>
        <_>
          <internalNodes>
            0 -1 79 6.9707289338111877e-02</internalNodes>
          <leafValues>
            -4.2142856121063232e-01 5.2702701091766357e-01</leafValues></_>
        <_>
          <internalNodes>
            0 -1 99 -1.3535988982766867e-03</internalNodes>
          <leafValues>
            6.1707872152328491e-01 -2.7355530858039856e-01</leafValues></_>
        <_>
          <internalNodes>
            0 -1 31 1.0654410289134830e-04</internalNodes>
          <leafValues>
            -3.3401098847389221e-01 5.0097507238388062e-01</leafValues></_>
        <_>
          <internalNodes>
            0 -1 17 -4.2779662180691957e-04</internalNodes>
          <leafValues>
            3.9182049036026001e-01 -3.8697412610054016e-01</leafValues></_>
        <_>
          <internalNodes>
            0 -1 91 4.9675447371555492e-05</internalNodes>
          <leafValues>
            -2.7016428112983704e-01 5.5036294460296631e-01</leafValues></_>
        <_>
          <internalNodes>
            0 -1 11 -1.4555546641349792e-01</internalNodes>
          <leafValues>
            9.8943084478378296e-01 -1.4634746313095093e-01</leafValues></_>
        <_>
          <internalNodes>
            0 -1 89 2.0818100892938673e-04</internalNodes>
          <leafValues>
            -2.2985859215259552e-01 7.0618277788162231e-01</leafValues></_>
        <_>
          <internalNodes>
            0 -1 84 1.8478760495781898e-02</internalNodes>
          <leafValues>
            2.6419797539710999e-01 -8.8075035810470581e-01</leafValues></_></weakClassifiers></_>
    <!-- stage 7 -->
    <_>
      <maxWeakCount>6</maxWeakCount>
      <stageThreshold>-1.0718932151794434e+00</stageThreshold>
      <weakClassifiers>
        <_>
          <internalNodes>
            0 -1 68 2.1634149551391602e-01</internalNodes>
          <leafValues>
            2.5333333015441895e-01 -9.0625000000000000e-01</leafValues></_>
        <_>
          <internalNodes>
            0 -1 29 -4.4576935470104218e-03</internalNodes>
          <leafValues>
            3.3109411597251892e-01 -5.5008959770202637e-01</leafValues></_>
        <_>
          <internalNodes>
            0 -1 77 -1.7749914526939392e-01</internalNodes>
          <leafValues>
            -8.9878290891647339e-01 2.2802495956420898e-01</leafValues></_>
        <_>
          <internalNodes>
            0 -1 55 9.6207781461998820e-04</internalNodes>
          <leafValues>
            -2.7655518054962158e-01 8.6274576187133789e-01</leafValues></_>
        <_>
          <internalNodes>
            0 -1 27 1.3601296814158559e-03</internalNodes>
          <leafValues>
            -2.9907125234603882e-01 6.6722339391708374e-01</leafValues></_>
        <_>
          <internalNodes>
            0 -1 80 -3.5320580936968327e-03</internalNodes>
          <leafValues>
            7.0994496345520020e-01 -2.3424685001373291e-01</leafValues></_></weakClassifiers></_>
    <!-- stage 8 -->
    <_>
      <maxWeakCount>7</maxWeakCount>
      <stageThreshold>-1.2175118923187256e+00</stageThreshold>
      <weakClassifiers>
        <_>
          <internalNodes>
            0 -1 26 -1.8379602581262589e-02</internalNodes>
          <leafValues>
            4.8936170339584351e-01 -5.5000001192092896e-01</leafValues></_>
        <_>
          <internalNodes>
            0 -1 87 -2.0986846720916219e-05</internalNodes>
          <leafValues>
            6.6912245750427246e-01 -3.0978593230247498e-01</leafValues></_>
        <_>
          <internalNodes>
            0 -1 9 1.5556304715573788e-03</internalNodes>
          <leafValues>
            3.5626128315925598e-01 -6.8374699354171753e-01</leafValues></_>
        <_>
          <internalNodes>
            0 -1 1 -1.1821833997964859e-01</internalNodes>
          <leafValues>
            -8.1032919883728027e-01 2.8032076358795166e-01</leafValues></_>
        <_>
          <internalNodes>
            0 -1 81 -3.0193920247256756e-03</internalNodes>
          <leafValues>
            7.4569648504257202e-01 -4.0288725495338440e-01</leafValues></_>
        <_>
          <internalNodes>
            0 -1 70 -4.4922153465449810e-03</internalNodes>
          <leafValues>
            8.7518054246902466e-01 -2.0807479321956635e-01</leafValues></_>
        <_>
          <internalNodes>
            0 -1 59 2.6687121135182679e-05</internalNodes>
          <leafValues>
            -2.8598308563232422e-01 7.0795053243637085e-01</leafValues></_></weakClassifiers></_>
    <!-- stage 9 -->
    <_>
      <maxWeakCount>13</maxWeakCount>
      <stageThreshold>-8.2510954141616821e-01</stageThreshold>
      <weakClassifiers>
        <_>
          <internalNodes>
            0 -1 15 5.5210115388035774e-03</internalNodes>
          <leafValues>
            -2.5139665603637695e-01 7.1428573131561279e-01</leafValues></_>
        <_>
          <internalNodes>
            0 -1 65 8.1621427088975906e-03</internalNodes>
          <leafValues>
            1.9546931982040405e-01 -6.9621890783309937e-01</leafValues></_>
        <_>
          <internalNodes>
            0 -1 10 6.8560370709747076e-04</internalNodes>
          <leafValues>
            1.5665221214294434e-01 -7.5432115793228149e-01</leafValues></_>
        <_>
          <internalNodes>
            0 -1 61 -9.0168183669447899e-04</internalNodes>
          <leafValues>
            3.9654913544654846e-01 -3.1225517392158508e-01</leafValues></_>
        <_>
          <internalNodes>
            0 -1 20 3.1657188665121794e-03</internalNodes>
          <leafValues>
            1.9879978895187378e-01 -5.9494358301162720e-01</leafValues></_>
        <_>
          <internalNodes>
            0 -1 52 7.2692871093750000e-02</internalNodes>
          <leafValues>
            -1.9927050173282623e-01 7.4696803092956543e-01</leafValues></_>
        <_>
          <internalNodes>
            0 -1 45 3.4095741808414459e-02</internalNodes>
          <leafValues>
            -1.4521816372871399e-01 8.5332041978836060e-01</leafValues></_>
        <_>
          <internalNodes>
            0 -1 66 -8.5761363152414560e-04</internalNodes>
          <leafValues>
            4.1665303707122803e-01 -2.8116655349731445e-01</leafValues></_>
        <_>
          <internalNodes>
            0 -1 58 -2.6049404405057430e-03</internalNodes>
          <leafValues>
            6.0806876420974731e-01 -2.1907415986061096e-01</leafValues></_>
        <_>
          <internalNodes>
            0 -1 97 7.6961849117651582e-05</internalNodes>
          <leafValues>
            -3.1407693028450012e-01 4.6520534157752991e-01</leafValues></_>
        <_>
          <internalNodes>
            0 -1 46 2.2177307982929051e-05</internalNodes>
          <leafValues>
            -2.6162916421890259e-01 4.6305623650550842e-01</leafValues></_>
        <_>
          <internalNodes>
            0 -1 107 -2.1581659093499184e-03</internalNodes>
          <leafValues>
            -8.4437662363052368e-01 1.5294449031352997e-01</leafValues></_>
        <_>
          <internalNodes>
            0 -1 73 5.3127355873584747e-02</internalNodes>
          <leafValues>
            -2.2824652493000031e-01 6.5101206302642822e-01</leafValues></_></weakClassifiers></_>
    <!-- stage 10 -->
    <_>
      <maxWeakCount>9</maxWeakCount>
      <stageThreshold>-9.7069245576858521e-01</stageThreshold>
      <weakClassifiers>
        <_>
          <internalNodes>
            0 -1 88 4.7555140918120742e-04</internalNodes>
          <leafValues>
            1.3069908320903778e-01 -8.3838385343551636e-01</leafValues></_>
        <_>
          <internalNodes>
            0 -1 102 -1.9806812633760273e-04</internalNodes>
          <leafValues>
            -7.4807286262512207e-01 1.8273437023162842e-01</leafValues></_>
        <_>
          <internalNodes>
            0 -1 14 -4.5146504417061806e-03</internalNodes>
          <leafValues>
            4.2337644100189209e-01 -3.8254827260971069e-01</leafValues></_>
        <_>
          <internalNodes>
            0 -1 24 -4.2132230009883642e-04</internalNodes>
          <leafValues>
            -6.5998440980911255e-01 2.4379092454910278e-01</leafValues></_>
        <_>
          <internalNodes>
            0 -1 101 -1.1964114382863045e-03</internalNodes>
          <leafValues>
            6.5668427944183350e-01 -2.5631052255630493e-01</leafValues></_>
        <_>
          <internalNodes>
            0 -1 96 -1.3413315173238516e-04</internalNodes>
          <leafValues>
            4.5772001147270203e-01 -3.6871334910392761e-01</leafValues></_>
        <_>
          <internalNodes>
            0 -1 16 3.9051771163940430e-03</internalNodes>
          <leafValues>
            2.9861027002334595e-01 -6.3959568738937378e-01</leafValues></_>
        <_>
          <internalNodes>
            0 -1 44 -4.1333097964525223e-02</internalNodes>
          <leafValues>
            5.8194583654403687e-01 -3.0508148670196533e-01</leafValues></_>
        <_>
          <internalNodes>
            0 -1 74 -3.5921162634622306e-05</internalNodes>
          <leafValues>
            5.0720220804214478e-01 -3.2550406455993652e-01</leafValues></_></weakClassifiers></_>
    <!-- stage 11 -->
    <_>
      <maxWeakCount>7</maxWeakCount>
      <stageThreshold>-8.7360668182373047e-01</stageThreshold>
      <weakClassifiers>
        <_>
          <internalNodes>
            0 -1 4 -7.1756720542907715e-02</internalNodes>
          <leafValues>
            6.9354838132858276e-01 -4.1447368264198303e-01</leafValues></_>
        <_>
          <internalNodes>
            0 -1 108 1.3905340165365487e-04</internalNodes>
          <leafValues>
            3.1842166185379028e-01 -7.0819371938705444e-01</leafValues></_>
        <_>
          <internalNodes>
            0 -1 42 8.1051664892584085e-04</internalNodes>
          <leafValues>
            2.9214122891426086e-01 -6.2062817811965942e-01</leafValues></_>
        <_>
          <internalNodes>
            0 -1 30 2.7161382138729095e-02</internalNodes>
          <leafValues>
            -2.6074275374412537e-01 6.7282491922378540e-01</leafValues></_>
        <_>
          <internalNodes>
            0 -1 13 8.7498745415359735e-04</internalNodes>
          <leafValues>
            2.1039408445358276e-01 -8.0583918094635010e-01</leafValues></_>
        <_>
          <internalNodes>
            0 -1 49 5.0651259720325470e-02</internalNodes>
          <leafValues>
            -2.4286571145057678e-01 6.7884004116058350e-01</leafValues></_>
        <_>
          <internalNodes>
            0 -1 69 -1.5542765613645315e-03</internalNodes>
          <leafValues>
            -4.5344859361648560e-01 3.3279943466186523e-01</leafValues></_></weakClassifiers></_>
    <!-- stage 12 -->
    <_>
      <maxWeakCount>10</maxWeakCount>
      <stageThreshold>-1.2585015296936035e+00</stageThreshold>
      <weakClassifiers>
        <_>
          <internalNodes>
            0 -1 39 9.1899484395980835e-02</internalNodes>
          <leafValues>
            -3.6601307988166809e-01 5.9016394615173340e-01</leafValues></_>
        <_>
          <internalNodes>
            0 -1 112 1.0360068408772349e-03</internalNodes>
          <leafValues>
            2.1438708901405334e-01 -6.3740259408950806e-01</leafValues></_>
        <_>
          <internalNodes>
            0 -1 63 2.9553812928497791e-03</internalNodes>
          <leafValues>
            1.2910707294940948e-01 -9.0935391187667847e-01</leafValues></_>
        <_>
          <internalNodes>
            0 -1 98 4.7097774222493172e-04</internalNodes>
          <leafValues>
            1.3506412506103516e-01 -7.3634344339370728e-01</leafValues></_>
        <_>
          <internalNodes>
            0 -1 100 -1.0795742273330688e-03</internalNodes>
          <leafValues>
            6.0153341293334961e-01 -2.3153203725814819e-01</leafValues></_>
        <_>
          <internalNodes>
            0 -1 21 6.5436653792858124e-02</internalNodes>
          <leafValues>
            -1.9625592231750488e-01 7.1837311983108521e-01</leafValues></_>
        <_>
          <internalNodes>
            0 -1 92 -5.7043007109314203e-04</internalNodes>
          <leafValues>
            5.0557363033294678e-01 -2.7278923988342285e-01</leafValues></_>
        <_>
          <internalNodes>
            0 -1 23 4.3056644499301910e-03</internalNodes>
          <leafValues>
            2.4687965214252472e-01 -6.5575277805328369e-01</leafValues></_>
        <_>
          <internalNodes>
            0 -1 78 1.0729690641164780e-01</internalNodes>
          <leafValues>
            -2.2279505431652069e-01 6.9100886583328247e-01</leafValues></_>
        <_>
          <internalNodes>
            0 -1 109 5.2052410319447517e-04</internalNodes>
          <leafValues>
            1.5723545849323273e-01 -9.3125009536743164e-01</leafValues></_></weakClassifiers></_>
    <!-- stage 13 -->
    <_>
      <maxWeakCount>8</maxWeakCount>
      <stageThreshold>-6.5723395347595215e-01</stageThreshold>
      <weakClassifiers>
        <_>
          <internalNodes>
            0 -1 71 1.1852406896650791e-04</internalNodes>
          <leafValues>
            1.3939394056797028e-01 -8.7755101919174194e-01</leafValues></_>
        <_>
          <internalNodes>
            0 -1 57 2.5891987024806440e-04</internalNodes>
          <leafValues>
            1.7734257876873016e-01 -6.7665886878967285e-01</leafValues></_>
        <_>
          <internalNodes>
            0 -1 93 7.0358321070671082e-02</internalNodes>
          <leafValues>
            -2.1222445368766785e-01 6.1536759138107300e-01</leafValues></_>
        <_>
          <internalNodes>
            0 -1 37 3.8641566061414778e-04</internalNodes>
          <leafValues>
            2.1278440952301025e-01 -6.9175803661346436e-01</leafValues></_>
        <_>
          <internalNodes>
            0 -1 40 1.9738434348255396e-03</internalNodes>
          <leafValues>
            -2.2145079076290131e-01 5.9259897470474243e-01</leafValues></_>
        <_>
          <internalNodes>
            0 -1 2 -8.9043207466602325e-02</internalNodes>
          <leafValues>
            5.4274743795394897e-01 -2.5874647498130798e-01</leafValues></_>
        <_>
          <internalNodes>
            0 -1 90 3.8605154259130359e-05</internalNodes>
          <leafValues>
            -3.4262210130691528e-01 4.2967984080314636e-01</leafValues></_>
        <_>
          <internalNodes>
            0 -1 105 -1.8917131819762290e-04</internalNodes>
          <leafValues>
            -9.5259243249893188e-01 1.3288363814353943e-01</leafValues></_></weakClassifiers></_>
    <!-- stage 14 -->
    <_>
      <maxWeakCount>11</maxWeakCount>
      <stageThreshold>-9.8715043067932129e-01</stageThreshold>
      <weakClassifiers>
        <_>
          <internalNodes>
            0 -1 22 -1.1735652387142181e-01</internalNodes>
          <leafValues>
            5.3125000000000000e-01 -3.6000001430511475e-01</leafValues></_>
        <_>
          <internalNodes>
            0 -1 50 -1.1274701682850718e-04</internalNodes>
          <leafValues>
            -5.9893059730529785e-01 2.6401165127754211e-01</leafValues></_>
        <_>
          <internalNodes>
            0 -1 7 2.8853185358457267e-04</internalNodes>
          <leafValues>
            1.9678625464439392e-01 -6.8757921457290649e-01</leafValues></_>
        <_>
          <internalNodes>
            0 -1 72 -4.2525529861450195e-03</internalNodes>
          <leafValues>
            5.3101545572280884e-01 -3.0368483066558838e-01</leafValues></_>
        <_>
          <internalNodes>
            0 -1 64 3.0187884112820029e-04</internalNodes>
          <leafValues>
            2.7609929442405701e-01 -5.5529862642288208e-01</leafValues></_>
        <_>
          <internalNodes>
            0 -1 38 -2.5769993662834167e-02</internalNodes>
          <leafValues>
            7.1669262647628784e-01 -2.1428905427455902e-01</leafValues></_>
        <_>
          <internalNodes>
            0 -1 111 1.8294902984052896e-03</internalNodes>
          <leafValues>
            2.0100459456443787e-01 -8.2931226491928101e-01</leafValues></_>
        <_>
          <internalNodes>
            0 -1 94 -1.7770335543900728e-03</internalNodes>
          <leafValues>
            4.5652219653129578e-01 -3.0962944030761719e-01</leafValues></_>
        <_>
          <internalNodes>
            0 -1 103 3.6733588785864413e-05</internalNodes>
          <leafValues>
            2.5093597173690796e-01 -5.8885210752487183e-01</leafValues></_>
        <_>
          <internalNodes>
            0 -1 0 -3.6860693944618106e-04</internalNodes>
          <leafValues>
            -5.1240128278732300e-01 2.3133745789527893e-01</leafValues></_>
        <_>
          <internalNodes>
            0 -1 62 3.7102969363331795e-03</internalNodes>
          <leafValues>
            -3.1468799710273743e-01 5.0808125734329224e-01</leafValues></_></weakClassifiers></_></stages>
  <features>
    <_>
      <rects>
        <_>
          0 0 1 15 -1.</_>
        <_>
          0 5 1 5 3.</_></rects>
      <tilted>0</tilted></_>
    <_>
      <rects>
        <_>
          0 1 36 11 -1.</_>
        <_>
          18 1 18 11 2.</_></rects>
      <tilted>0</tilted></_>
    <_>
      <rects>
        <_>
          0 1 29 15 -1.</_>
        <_>
          0 6 29 5 3.</_></rects>
      <tilted>0</tilted></_>
    <_>
      <rects>
        <_>
          0 4 12 17 -1.</_>
        <_>
          6 4 6 17 2.</_></rects>
      <tilted>0</tilted></_>
    <_>
      <rects>
        <_>
          0 4 12 18 -1.</_>
        <_>
          6 4 6 18 2.</_></rects>
      <tilted>0</tilted></_>
    <_>
      <rects>
        <_>
          0 4 14 17 -1.</_>
        <_>
          7 4 7 17 2.</_></rects>
      <tilted>0</tilted></_>
    <_>
      <rects>
        <_>
          0 5 1 18 -1.</_>
        <_>
          0 11 1 6 3.</_></rects>
      <tilted>0</tilted></_>
    <_>
      <rects>
        <_>
          0 5 2 3 -1.</_>
        <_>
          0 6 2 1 3.</_></rects>
      <tilted>0</tilted></_>
    <_>
      <rects>
        <_>
          0 6 1 15 -1.</_>
        <_>
          0 11 1 5 3.</_></rects>
      <tilted>0</tilted></_>
    <_>
      <rects>
        <_>
          0 9 1 14 -1.</_>
        <_>
          0 16 1 7 2.</_></rects>
      <tilted>0</tilted></_>
    <_>
      <rects>
        <_>
          0 10 1 9 -1.</_>
        <_>
          0 13 1 3 3.</_></rects>
      <tilted>0</tilted></_>
    <_>
      <rects>
        <_>
          0 11 36 4 -1.</_>
        <_>
          12 11 12 4 3.</_></rects>
      <tilted>0</tilted></_>
    <_>
      <rects>
        <_>
          0 14 35 10 -1.</_>
        <_>
          0 19 35 5 2.</_></rects>
      <tilted>0</tilted></_>
    <_>
      <rects>
        <_>
          0 15 1 6 -1.</_>
        <_>
          0 17 1 2 3.</_></rects>
      <tilted>0</tilted></_>
    <_>
      <rects>
        <_>
          0 16 14 2 -1.</_>
        <_>
          7 16 7 2 2.</_></rects>
      <tilted>0</tilted></_>
    <_>
      <rects>
        <_>
          0 21 21 3 -1.</_>
        <_>
          0 22 21 1 3.</_></rects>
      <tilted>0</tilted></_>
    <_>
      <rects>
        <_>
          1 0 21 2 -1.</_>
        <_>
          8 0 7 2 3.</_></rects>
      <tilted>0</tilted></_>
    <_>
      <rects>
        <_>
          1 19 12 5 -1.</_>
        <_>
          7 19 6 5 2.</_></rects>
      <tilted>0</tilted></_>
    <_>
      <rects>
        <_>
          1 23 28 1 -1.</_>
        <_>
          15 23 14 1 2.</_></rects>
      <tilted>0</tilted></_>
    <_>
      <rects>
        <_>
          1 23 34 1 -1.</_>
        <_>
          18 23 17 1 2.</_></rects>
      <tilted>0</tilted></_>
    <_>
      <rects>
        <_>
          2 0 30 1 -1.</_>
        <_>
          12 0 10 1 3.</_></rects>
      <tilted>0</tilted></_>
    <_>
      <rects>
        <_>
          2 3 20 14 -1.</_>
        <_>
          12 3 10 14 2.</_></rects>
      <tilted>0</tilted></_>
    <_>
      <rects>
        <_>
          2 5 27 15 -1.</_>
        <_>
          11 5 9 15 3.</_></rects>
      <tilted>0</tilted></_>
    <_>
      <rects>
        <_>
          2 23 34 1 -1.</_>
        <_>
          19 23 17 1 2.</_></rects>
      <tilted>0</tilted></_>
    <_>
      <rects>
        <_>
          3 0 10 1 -1.</_>
        <_>
          8 0 5 1 2.</_></rects>
      <tilted>0</tilted></_>
    <_>
      <rects>
        <_>
          3 0 33 1 -1.</_>
        <_>
          14 0 11 1 3.</_></rects>
      <tilted>0</tilted></_>
    <_>
      <rects>
        <_>
          3 0 19 10 -1.</_>
        <_>
          3 5 19 5 2.</_></rects>
      <tilted>0</tilted></_>
    <_>
      <rects>
        <_>
          3 17 22 3 -1.</_>
        <_>
          3 18 22 1 3.</_></rects>
      <tilted>0</tilted></_>
    <_>
      <rects>
        <_>
          3 23 28 1 -1.</_>
        <_>
          17 23 14 1 2.</_></rects>
      <tilted>0</tilted></_>
    <_>
      <rects>
        <_>
          4 0 12 10 -1.</_>
        <_>
          4 5 12 5 2.</_></rects>
      <tilted>0</tilted></_>
    <_>
      <rects>
        <_>
          4 6 15 9 -1.</_>
        <_>
          9 6 5 9 3.</_></rects>
      <tilted>0</tilted></_>
    <_>
      <rects>
        <_>
          4 10 7 2 -1.</_>
        <_>
          4 11 7 1 2.</_></rects>
      <tilted>0</tilted></_>
    <_>
      <rects>
        <_>
          4 11 15 7 -1.</_>
        <_>
          9 11 5 7 3.</_></rects>
      <tilted>0</tilted></_>
    <_>
      <rects>
        <_>
          5 0 30 1 -1.</_>
        <_>
          15 0 10 1 3.</_></rects>
      <tilted>0</tilted></_>
    <_>
      <rects>
        <_>
          5 7 2 3 -1.</_>
        <_>
          6 7 1 3 2.</_></rects>
      <tilted>0</tilted></_>
    <_>
      <rects>
        <_>
          5 14 2 6 -1.</_>
        <_>
          6 14 1 6 2.</_></rects>
      <tilted>0</tilted></_>
    <_>
      <rects>
        <_>
          5 14 10 9 -1.</_>
        <_>
          10 14 5 9 2.</_></rects>
      <tilted>0</tilted></_>
    <_>
      <rects>
        <_>
          5 23 6 1 -1.</_>
        <_>
          7 23 2 1 3.</_></rects>
      <tilted>0</tilted></_>
    <_>
      <rects>
        <_>
          6 3 14 10 -1.</_>
        <_>
          6 3 7 5 2.</_>
        <_>
          13 8 7 5 2.</_></rects>
      <tilted>0</tilted></_>
    <_>
      <rects>
        <_>
          6 12 20 12 -1.</_>
        <_>
          6 18 20 6 2.</_></rects>
      <tilted>0</tilted></_>
    <_>
      <rects>
        <_>
          6 21 10 2 -1.</_>
        <_>
          6 22 10 1 2.</_></rects>
      <tilted>0</tilted></_>
    <_>
      <rects>
        <_>
          6 23 22 1 -1.</_>
        <_>
          17 23 11 1 2.</_></rects>
      <tilted>0</tilted></_>
    <_>
      <rects>
        <_>
          7 0 22 1 -1.</_>
        <_>
          18 0 11 1 2.</_></rects>
      <tilted>0</tilted></_>
    <_>
      <rects>
        <_>
          7 0 14 9 -1.</_>
        <_>
          7 3 14 3 3.</_></rects>
      <tilted>0</tilted></_>
    <_>
      <rects>
        <_>
          7 1 10 20 -1.</_>
        <_>
          12 1 5 20 2.</_></rects>
      <tilted>0</tilted></_>
    <_>
      <rects>
        <_>
          7 3 24 6 -1.</_>
        <_>
          7 5 24 2 3.</_></rects>
      <tilted>0</tilted></_>
    <_>
      <rects>
        <_>
          7 14 2 4 -1.</_>
        <_>
          7 14 1 2 2.</_>
        <_>
          8 16 1 2 2.</_></rects>
      <tilted>0</tilted></_>
    <_>
      <rects>
        <_>
          7 23 26 1 -1.</_>
        <_>
          20 23 13 1 2.</_></rects>
      <tilted>0</tilted></_>
    <_>
      <rects>
        <_>
          8 2 23 6 -1.</_>
        <_>
          8 4 23 2 3.</_></rects>
      <tilted>0</tilted></_>
    <_>
      <rects>
        <_>
          8 7 21 10 -1.</_>
        <_>
          15 7 7 10 3.</_></rects>
      <tilted>0</tilted></_>
    <_>
      <rects>
        <_>
          9 0 6 1 -1.</_>
        <_>
          12 0 3 1 2.</_></rects>
      <tilted>0</tilted></_>
    <_>
      <rects>
        <_>
          9 0 21 10 -1.</_>
        <_>
          9 5 21 5 2.</_></rects>
      <tilted>0</tilted></_>
    <_>
      <rects>
        <_>
          9 7 21 12 -1.</_>
        <_>
          16 7 7 12 3.</_></rects>
      <tilted>0</tilted></_>
    <_>
      <rects>
        <_>
          9 22 20 2 -1.</_>
        <_>
          9 23 20 1 2.</_></rects>
      <tilted>0</tilted></_>
    <_>
      <rects>
        <_>
          9 23 24 1 -1.</_>
        <_>
          21 23 12 1 2.</_></rects>
      <tilted>0</tilted></_>
    <_>
      <rects>
        <_>
          10 7 6 1 -1.</_>
        <_>
          12 7 2 1 3.</_></rects>
      <tilted>0</tilted></_>
    <_>
      <rects>
        <_>
          10 14 3 1 -1.</_>
        <_>
          11 14 1 1 3.</_></rects>
      <tilted>0</tilted></_>
    <_>
      <rects>
        <_>
          11 0 9 1 -1.</_>
        <_>
          14 0 3 1 3.</_></rects>
      <tilted>0</tilted></_>
    <_>
      <rects>
        <_>
          11 2 6 7 -1.</_>
        <_>
          13 2 2 7 3.</_></rects>
      <tilted>0</tilted></_>
    <_>
      <rects>
        <_>
          11 13 2 2 -1.</_>
        <_>
          11 13 1 1 2.</_>
        <_>
          12 14 1 1 2.</_></rects>
      <tilted>0</tilted></_>
    <_>
      <rects>
        <_>
          11 16 20 8 -1.</_>
        <_>
          11 20 20 4 2.</_></rects>
      <tilted>0</tilted></_>
    <_>
      <rects>
        <_>
          12 0 2 6 -1.</_>
        <_>
          12 3 2 3 2.</_></rects>
      <tilted>0</tilted></_>
    <_>
      <rects>
        <_>
          12 2 10 10 -1.</_>
        <_>
          12 2 5 5 2.</_>
        <_>
          17 7 5 5 2.</_></rects>
      <tilted>0</tilted></_>
    <_>
      <rects>
        <_>
          12 23 9 1 -1.</_>
        <_>
          15 23 3 1 3.</_></rects>
      <tilted>0</tilted></_>
    <_>
      <rects>
        <_>
          12 23 18 1 -1.</_>
        <_>
          18 23 6 1 3.</_></rects>
      <tilted>0</tilted></_>
    <_>
      <rects>
        <_>
          12 23 24 1 -1.</_>
        <_>
          24 23 12 1 2.</_></rects>
      <tilted>0</tilted></_>
    <_>
      <rects>
        <_>
          13 14 6 3 -1.</_>
        <_>
          16 14 3 3 2.</_></rects>
      <tilted>0</tilted></_>
    <_>
      <rects>
        <_>
          13 21 1 2 -1.</_>
        <_>
          13 22 1 1 2.</_></rects>
      <tilted>0</tilted></_>
    <_>
      <rects>
        <_>
          14 0 22 24 -1.</_>
        <_>
          14 12 22 12 2.</_></rects>
      <tilted>0</tilted></_>
    <_>
      <rects>
        <_>
          14 19 22 5 -1.</_>
        <_>
          25 19 11 5 2.</_></rects>
      <tilted>0</tilted></_>
    <_>
      <rects>
        <_>
          16 14 9 2 -1.</_>
        <_>
          19 14 3 2 3.</_></rects>
      <tilted>0</tilted></_>
    <_>
      <rects>
        <_>
          17 0 3 1 -1.</_>
        <_>
          18 0 1 1 3.</_></rects>
      <tilted>0</tilted></_>
    <_>
      <rects>
        <_>
          18 4 10 8 -1.</_>
        <_>
          18 4 5 4 2.</_>
        <_>
          23 8 5 4 2.</_></rects>
      <tilted>0</tilted></_>
    <_>
      <rects>
        <_>
          18 6 18 11 -1.</_>
        <_>
          24 6 6 11 3.</_></rects>
      <tilted>0</tilted></_>
    <_>
      <rects>
        <_>
          19 7 2 4 -1.</_>
        <_>
          19 7 1 2 2.</_>
        <_>
          20 9 1 2 2.</_></rects>
      <tilted>0</tilted></_>
    <_>
      <rects>
        <_>
          19 11 2 3 -1.</_>
        <_>
          19 12 2 1 3.</_></rects>
      <tilted>0</tilted></_>
    <_>
      <rects>
        <_>
          19 12 3 10 -1.</_>
        <_>
          20 12 1 10 3.</_></rects>
      <tilted>0</tilted></_>
    <_>
      <rects>
        <_>
          20 2 16 20 -1.</_>
        <_>
          20 12 16 10 2.</_></rects>
      <tilted>0</tilted></_>
    <_>
      <rects>
        <_>
          20 4 14 17 -1.</_>
        <_>
          27 4 7 17 2.</_></rects>
      <tilted>0</tilted></_>
    <_>
      <rects>
        <_>
          20 4 16 15 -1.</_>
        <_>
          28 4 8 15 2.</_></rects>
      <tilted>0</tilted></_>
    <_>
      <rects>
        <_>
          20 5 6 9 -1.</_>
        <_>
          22 5 2 9 3.</_></rects>
      <tilted>0</tilted></_>
    <_>
      <rects>
        <_>
          20 5 4 11 -1.</_>
        <_>
          22 5 2 11 2.</_></rects>
      <tilted>0</tilted></_>
    <_>
      <rects>
        <_>
          20 15 2 3 -1.</_>
        <_>
          21 15 1 3 2.</_></rects>
      <tilted>0</tilted></_>
    <_>
      <rects>
        <_>
          20 20 5 3 -1.</_>
        <_>
          20 21 5 1 3.</_></rects>
      <tilted>0</tilted></_>
    <_>
      <rects>
        <_>
          21 0 15 4 -1.</_>
        <_>
          26 0 5 4 3.</_></rects>
      <tilted>0</tilted></_>
    <_>
      <rects>
        <_>
          21 5 3 7 -1.</_>
        <_>
          22 5 1 7 3.</_></rects>
      <tilted>0</tilted></_>
    <_>
      <rects>
        <_>
          21 7 14 3 -1.</_>
        <_>
          28 7 7 3 2.</_></rects>
      <tilted>0</tilted></_>
    <_>
      <rects>
        <_>
          21 18 2 2 -1.</_>
        <_>
          21 18 1 1 2.</_>
        <_>
          22 19 1 1 2.</_></rects>
      <tilted>0</tilted></_>
    <_>
      <rects>
        <_>
          22 0 9 1 -1.</_>
        <_>
          25 0 3 1 3.</_></rects>
      <tilted>0</tilted></_>
    <_>
      <rects>
        <_>
          22 2 5 2 -1.</_>
        <_>
          22 3 5 1 2.</_></rects>
      <tilted>0</tilted></_>
    <_>
      <rects>
        <_>
          22 5 1 6 -1.</_>
        <_>
          22 7 1 2 3.</_></rects>
      <tilted>0</tilted></_>
    <_>
      <rects>
        <_>
          22 9 1 2 -1.</_>
        <_>
          22 10 1 1 2.</_></rects>
      <tilted>0</tilted></_>
    <_>
      <rects>
        <_>
          23 3 2 12 -1.</_>
        <_>
          23 3 1 6 2.</_>
        <_>
          24 9 1 6 2.</_></rects>
      <tilted>0</tilted></_>
    <_>
      <rects>
        <_>
          24 2 12 18 -1.</_>
        <_>
          30 2 6 18 2.</_></rects>
      <tilted>0</tilted></_>
    <_>
      <rects>
        <_>
          25 8 6 2 -1.</_>
        <_>
          27 8 2 2 3.</_></rects>
      <tilted>0</tilted></_>
    <_>
      <rects>
        <_>
          25 12 9 2 -1.</_>
        <_>
          28 12 3 2 3.</_></rects>
      <tilted>0</tilted></_>
    <_>
      <rects>
        <_>
          25 14 8 2 -1.</_>
        <_>
          25 14 4 1 2.</_>
        <_>
          29 15 4 1 2.</_></rects>
      <tilted>0</tilted></_>
    <_>
      <rects>
        <_>
          26 9 4 2 -1.</_>
        <_>
          26 10 4 1 2.</_></rects>
      <tilted>0</tilted></_>
    <_>
      <rects>
        <_>
          27 1 6 1 -1.</_>
        <_>
          29 1 2 1 3.</_></rects>
      <tilted>0</tilted></_>
    <_>
      <rects>
        <_>
          27 12 6 5 -1.</_>
        <_>
          29 12 2 5 3.</_></rects>
      <tilted>0</tilted></_>
    <_>
      <rects>
        <_>
          27 13 9 1 -1.</_>
        <_>
          30 13 3 1 3.</_></rects>
      <tilted>0</tilted></_>
    <_>
      <rects>
        <_>
          29 0 3 15 -1.</_>
        <_>
          30 0 1 15 3.</_></rects>
      <tilted>0</tilted></_>
    <_>
      <rects>
        <_>
          30 22 4 2 -1.</_>
        <_>
          32 22 2 2 2.</_></rects>
      <tilted>0</tilted></_>
    <_>
      <rects>
        <_>
          33 1 3 1 -1.</_>
        <_>
          34 1 1 1 3.</_></rects>
      <tilted>0</tilted></_>
    <_>
      <rects>
        <_>
          34 2 2 20 -1.</_>
        <_>
          34 12 2 10 2.</_></rects>
      <tilted>0</tilted></_>
    <_>
      <rects>
        <_>
          34 19 2 1 -1.</_>
        <_>
          35 19 1 1 2.</_></rects>
      <tilted>0</tilted></_>
    <_>
      <rects>
        <_>
          35 0 1 6 -1.</_>
        <_>
          35 2 1 2 3.</_></rects>
      <tilted>0</tilted></_>
    <_>
      <rects>
        <_>
          35 0 1 8 -1.</_>
        <_>
          35 4 1 4 2.</_></rects>
      <tilted>0</tilted></_>
    <_>
      <rects>
        <_>
          35 3 1 2 -1.</_>
        <_>
          35 4 1 1 2.</_></rects>
      <tilted>0</tilted></_>
    <_>
      <rects>
        <_>
          35 6 1 3 -1.</_>
        <_>
          35 7 1 1 3.</_></rects>
      <tilted>0</tilted></_>
    <_>
      <rects>
        <_>
          35 7 1 16 -1.</_>
        <_>
          35 15 1 8 2.</_></rects>
      <tilted>0</tilted></_>
    <_>
      <rects>
        <_>
          35 10 1 6 -1.</_>
        <_>
          35 12 1 2 3.</_></rects>
      <tilted>0</tilted></_>
    <_>
      <rects>
        <_>
          35 14 1 8 -1.</_>
        <_>
          35 18 1 4 2.</_></rects>
      <tilted>0</tilted></_></features></cascade>
</opencv_storage>
